digraph Tree {
node [shape=box, style="filled, rounded", color="black", fontname=helvetica] ;
edge [fontname=helvetica] ;
0 [label="X[10] <= 0.5\ngini = 0.49\nsamples = 450\nvalue = [305, 429]\nclass = versicolor", fillcolor="#c6e3f7"] ;
1 [label="X[9] <= 1.25\ngini = 0.36\nsamples = 205\nvalue = [251, 77]\nclass = setosa", fillcolor="#eda876"] ;
0 -> 1 [labeldistance=2.5, labelangle=45, headlabel="True"] ;
2 [label="X[4] <= 42.5\ngini = 0.26\nsamples = 171\nvalue = [228, 41]\nclass = setosa", fillcolor="#ea985d"] ;
1 -> 2 ;
3 [label="X[0] <= 39.0\ngini = 0.48\nsamples = 11\nvalue = [7, 11]\nclass = versicolor", fillcolor="#b7dbf6"] ;
2 -> 3 ;
4 [label="gini = 0.0\nsamples = 1\nvalue = [4, 0]\nclass = setosa", fillcolor="#e58139"] ;
3 -> 4 ;
5 [label="X[0] <= 71.0\ngini = 0.34\nsamples = 10\nvalue = [3, 11]\nclass = versicolor", fillcolor="#6fb8ec"] ;
3 -> 5 ;
6 [label="X[5] <= 0.5\ngini = 0.15\nsamples = 9\nvalue = [1, 11]\nclass = versicolor", fillcolor="#4ba6e7"] ;
5 -> 6 ;
7 [label="X[3] <= 116.0\ngini = 0.32\nsamples = 4\nvalue = [1, 4]\nclass = versicolor", fillcolor="#6ab6ec"] ;
6 -> 7 ;
8 [label="gini = 0.0\nsamples = 1\nvalue = [1, 0]\nclass = setosa", fillcolor="#e58139"] ;
7 -> 8 ;
9 [label="gini = 0.0\nsamples = 3\nvalue = [0, 4]\nclass = versicolor", fillcolor="#399de5"] ;
7 -> 9 ;
10 [label="gini = 0.0\nsamples = 5\nvalue = [0, 7]\nclass = versicolor", fillcolor="#399de5"] ;
6 -> 10 ;
11 [label="gini = 0.0\nsamples = 1\nvalue = [2, 0]\nclass = setosa", fillcolor="#e58139"] ;
5 -> 11 ;
12 [label="X[2] <= 1.5\ngini = 0.21\nsamples = 160\nvalue = [221, 30]\nclass = setosa", fillcolor="#e99254"] ;
2 -> 12 ;
13 [label="X[0] <= 56.5\ngini = 0.07\nsamples = 112\nvalue = [172, 6]\nclass = setosa", fillcolor="#e68540"] ;
12 -> 13 ;
14 [label="X[2] <= 0.5\ngini = 0.03\nsamples = 91\nvalue = [148, 2]\nclass = setosa", fillcolor="#e5833c"] ;
13 -> 14 ;
15 [label="gini = 0.0\nsamples = 57\nvalue = [96, 0]\nclass = setosa", fillcolor="#e58139"] ;
14 -> 15 ;
16 [label="X[3] <= 109.0\ngini = 0.07\nsamples = 34\nvalue = [52, 2]\nclass = setosa", fillcolor="#e68641"] ;
14 -> 16 ;
17 [label="X[4] <= 241.5\ngini = 0.38\nsamples = 4\nvalue = [6, 2]\nclass = setosa", fillcolor="#eeab7b"] ;
16 -> 17 ;
18 [label="gini = 0.0\nsamples = 3\nvalue = [6, 0]\nclass = setosa", fillcolor="#e58139"] ;
17 -> 18 ;
19 [label="gini = 0.0\nsamples = 1\nvalue = [0, 2]\nclass = versicolor", fillcolor="#399de5"] ;
17 -> 19 ;
20 [label="gini = 0.0\nsamples = 30\nvalue = [46, 0]\nclass = setosa", fillcolor="#e58139"] ;
16 -> 20 ;
21 [label="X[4] <= 257.5\ngini = 0.24\nsamples = 21\nvalue = [24, 4]\nclass = setosa", fillcolor="#e9965a"] ;
13 -> 21 ;
22 [label="gini = 0.0\nsamples = 8\nvalue = [9, 0]\nclass = setosa", fillcolor="#e58139"] ;
21 -> 22 ;
23 [label="X[7] <= 137.0\ngini = 0.33\nsamples = 13\nvalue = [15, 4]\nclass = setosa", fillcolor="#eca36e"] ;
21 -> 23 ;
24 [label="gini = 0.0\nsamples = 3\nvalue = [5, 0]\nclass = setosa", fillcolor="#e58139"] ;
23 -> 24 ;
25 [label="X[4] <= 265.0\ngini = 0.41\nsamples = 10\nvalue = [10, 4]\nclass = setosa", fillcolor="#efb388"] ;
23 -> 25 ;
26 [label="gini = 0.0\nsamples = 1\nvalue = [0, 2]\nclass = versicolor", fillcolor="#399de5"] ;
25 -> 26 ;
27 [label="X[9] <= 0.2\ngini = 0.28\nsamples = 9\nvalue = [10, 2]\nclass = setosa", fillcolor="#ea9a61"] ;
25 -> 27 ;
28 [label="X[7] <= 165.0\ngini = 0.5\nsamples = 3\nvalue = [2, 2]\nclass = setosa", fillcolor="#ffffff"] ;
27 -> 28 ;
29 [label="gini = 0.0\nsamples = 2\nvalue = [0, 2]\nclass = versicolor", fillcolor="#399de5"] ;
28 -> 29 ;
30 [label="gini = 0.0\nsamples = 1\nvalue = [2, 0]\nclass = setosa", fillcolor="#e58139"] ;
28 -> 30 ;
31 [label="gini = 0.0\nsamples = 6\nvalue = [8, 0]\nclass = setosa", fillcolor="#e58139"] ;
27 -> 31 ;
32 [label="X[4] <= 222.5\ngini = 0.44\nsamples = 48\nvalue = [49, 24]\nclass = setosa", fillcolor="#f2bf9a"] ;
12 -> 32 ;
33 [label="X[9] <= 0.6\ngini = 0.15\nsamples = 18\nvalue = [23, 2]\nclass = setosa", fillcolor="#e78c4a"] ;
32 -> 33 ;
34 [label="X[9] <= 0.05\ngini = 0.08\nsamples = 17\nvalue = [23, 1]\nclass = setosa", fillcolor="#e68642"] ;
33 -> 34 ;
35 [label="X[3] <= 136.0\ngini = 0.1\nsamples = 13\nvalue = [17, 1]\nclass = setosa", fillcolor="#e78845"] ;
34 -> 35 ;
36 [label="gini = 0.0\nsamples = 8\nvalue = [11, 0]\nclass = setosa", fillcolor="#e58139"] ;
35 -> 36 ;
37 [label="X[8] <= 0.5\ngini = 0.24\nsamples = 5\nvalue = [6, 1]\nclass = setosa", fillcolor="#e9965a"] ;
35 -> 37 ;
38 [label="gini = 0.0\nsamples = 3\nvalue = [4, 0]\nclass = setosa", fillcolor="#e58139"] ;
37 -> 38 ;
39 [label="X[3] <= 145.0\ngini = 0.44\nsamples = 2\nvalue = [2, 1]\nclass = setosa", fillcolor="#f2c09c"] ;
37 -> 39 ;
40 [label="gini = 0.0\nsamples = 1\nvalue = [0, 1]\nclass = versicolor", fillcolor="#399de5"] ;
39 -> 40 ;
41 [label="gini = 0.0\nsamples = 1\nvalue = [2, 0]\nclass = setosa", fillcolor="#e58139"] ;
39 -> 41 ;
42 [label="gini = 0.0\nsamples = 4\nvalue = [6, 0]\nclass = setosa", fillcolor="#e58139"] ;
34 -> 42 ;
43 [label="gini = 0.0\nsamples = 1\nvalue = [0, 1]\nclass = versicolor", fillcolor="#399de5"] ;
33 -> 43 ;
44 [label="X[3] <= 129.0\ngini = 0.5\nsamples = 30\nvalue = [26, 22]\nclass = setosa", fillcolor="#fbece1"] ;
32 -> 44 ;
45 [label="X[7] <= 143.0\ngini = 0.39\nsamples = 11\nvalue = [6, 17]\nclass = versicolor", fillcolor="#7fc0ee"] ;
44 -> 45 ;
46 [label="gini = 0.0\nsamples = 3\nvalue = [5, 0]\nclass = setosa", fillcolor="#e58139"] ;
45 -> 46 ;
47 [label="X[7] <= 178.0\ngini = 0.1\nsamples = 8\nvalue = [1, 17]\nclass = versicolor", fillcolor="#45a3e7"] ;
45 -> 47 ;
48 [label="gini = 0.0\nsamples = 7\nvalue = [0, 17]\nclass = versicolor", fillcolor="#399de5"] ;
47 -> 48 ;
49 [label="gini = 0.0\nsamples = 1\nvalue = [1, 0]\nclass = setosa", fillcolor="#e58139"] ;
47 -> 49 ;
50 [label="X[4] <= 230.0\ngini = 0.32\nsamples = 19\nvalue = [20, 5]\nclass = setosa", fillcolor="#eca06a"] ;
44 -> 50 ;
51 [label="gini = 0.0\nsamples = 1\nvalue = [0, 2]\nclass = versicolor", fillcolor="#399de5"] ;
50 -> 51 ;
52 [label="X[3] <= 155.0\ngini = 0.23\nsamples = 18\nvalue = [20, 3]\nclass = setosa", fillcolor="#e99457"] ;
50 -> 52 ;
53 [label="X[4] <= 322.5\ngini = 0.1\nsamples = 14\nvalue = [18, 1]\nclass = setosa", fillcolor="#e68844"] ;
52 -> 53 ;
54 [label="gini = 0.0\nsamples = 10\nvalue = [13, 0]\nclass = setosa", fillcolor="#e58139"] ;
53 -> 54 ;
55 [label="X[0] <= 59.5\ngini = 0.28\nsamples = 4\nvalue = [5, 1]\nclass = setosa", fillcolor="#ea9a61"] ;
53 -> 55 ;
56 [label="gini = 0.0\nsamples = 3\nvalue = [5, 0]\nclass = setosa", fillcolor="#e58139"] ;
55 -> 56 ;
57 [label="gini = 0.0\nsamples = 1\nvalue = [0, 1]\nclass = versicolor", fillcolor="#399de5"] ;
55 -> 57 ;
58 [label="X[9] <= 0.5\ngini = 0.5\nsamples = 4\nvalue = [2, 2]\nclass = setosa", fillcolor="#ffffff"] ;
52 -> 58 ;
59 [label="X[7] <= 122.5\ngini = 0.44\nsamples = 3\nvalue = [2, 1]\nclass = setosa", fillcolor="#f2c09c"] ;
58 -> 59 ;
60 [label="gini = 0.0\nsamples = 1\nvalue = [1, 0]\nclass = setosa", fillcolor="#e58139"] ;
59 -> 60 ;
61 [label="X[4] <= 255.0\ngini = 0.5\nsamples = 2\nvalue = [1, 1]\nclass = setosa", fillcolor="#ffffff"] ;
59 -> 61 ;
62 [label="gini = 0.0\nsamples = 1\nvalue = [1, 0]\nclass = setosa", fillcolor="#e58139"] ;
61 -> 62 ;
63 [label="gini = 0.0\nsamples = 1\nvalue = [0, 1]\nclass = versicolor", fillcolor="#399de5"] ;
61 -> 63 ;
64 [label="gini = 0.0\nsamples = 1\nvalue = [0, 1]\nclass = versicolor", fillcolor="#399de5"] ;
58 -> 64 ;
65 [label="X[5] <= 0.5\ngini = 0.48\nsamples = 34\nvalue = [23, 36]\nclass = versicolor", fillcolor="#b8dcf6"] ;
1 -> 65 ;
66 [label="X[3] <= 146.0\ngini = 0.46\nsamples = 21\nvalue = [23, 13]\nclass = setosa", fillcolor="#f4c8a9"] ;
65 -> 66 ;
67 [label="X[9] <= 2.25\ngini = 0.5\nsamples = 16\nvalue = [12, 12]\nclass = setosa", fillcolor="#ffffff"] ;
66 -> 67 ;
68 [label="X[2] <= 2.5\ngini = 0.42\nsamples = 12\nvalue = [12, 5]\nclass = setosa", fillcolor="#f0b58b"] ;
67 -> 68 ;
69 [label="gini = 0.0\nsamples = 6\nvalue = [8, 0]\nclass = setosa", fillcolor="#e58139"] ;
68 -> 69 ;
70 [label="X[3] <= 122.0\ngini = 0.49\nsamples = 6\nvalue = [4, 5]\nclass = versicolor", fillcolor="#d7ebfa"] ;
68 -> 70 ;
71 [label="gini = 0.0\nsamples = 1\nvalue = [3, 0]\nclass = setosa", fillcolor="#e58139"] ;
70 -> 71 ;
72 [label="X[7] <= 177.5\ngini = 0.28\nsamples = 5\nvalue = [1, 5]\nclass = versicolor", fillcolor="#61b1ea"] ;
70 -> 72 ;
73 [label="gini = 0.0\nsamples = 4\nvalue = [0, 5]\nclass = versicolor", fillcolor="#399de5"] ;
72 -> 73 ;
74 [label="gini = 0.0\nsamples = 1\nvalue = [1, 0]\nclass = setosa", fillcolor="#e58139"] ;
72 -> 74 ;
75 [label="gini = 0.0\nsamples = 4\nvalue = [0, 7]\nclass = versicolor", fillcolor="#399de5"] ;
67 -> 75 ;
76 [label="X[4] <= 160.5\ngini = 0.15\nsamples = 5\nvalue = [11, 1]\nclass = setosa", fillcolor="#e78c4b"] ;
66 -> 76 ;
77 [label="gini = 0.0\nsamples = 1\nvalue = [0, 1]\nclass = versicolor", fillcolor="#399de5"] ;
76 -> 77 ;
78 [label="gini = 0.0\nsamples = 4\nvalue = [11, 0]\nclass = setosa", fillcolor="#e58139"] ;
76 -> 78 ;
79 [label="gini = 0.0\nsamples = 13\nvalue = [0, 23]\nclass = versicolor", fillcolor="#399de5"] ;
65 -> 79 ;
80 [label="X[3] <= 130.5\ngini = 0.23\nsamples = 245\nvalue = [54, 352]\nclass = versicolor", fillcolor="#57ace9"] ;
0 -> 80 [labeldistance=2.5, labelangle=-45, headlabel="False"] ;
81 [label="X[2] <= 1.5\ngini = 0.33\nsamples = 109\nvalue = [36, 138]\nclass = versicolor", fillcolor="#6db7ec"] ;
80 -> 81 ;
82 [label="X[0] <= 55.0\ngini = 0.49\nsamples = 32\nvalue = [24, 30]\nclass = versicolor", fillcolor="#d7ebfa"] ;
81 -> 82 ;
83 [label="X[3] <= 122.5\ngini = 0.46\nsamples = 17\nvalue = [18, 10]\nclass = setosa", fillcolor="#f3c7a7"] ;
82 -> 83 ;
84 [label="X[7] <= 141.0\ngini = 0.48\nsamples = 12\nvalue = [7, 10]\nclass = versicolor", fillcolor="#c4e2f7"] ;
83 -> 84 ;
85 [label="gini = 0.0\nsamples = 4\nvalue = [0, 7]\nclass = versicolor", fillcolor="#399de5"] ;
84 -> 85 ;
86 [label="X[7] <= 159.0\ngini = 0.42\nsamples = 8\nvalue = [7, 3]\nclass = setosa", fillcolor="#f0b78e"] ;
84 -> 86 ;
87 [label="gini = 0.0\nsamples = 4\nvalue = [5, 0]\nclass = setosa", fillcolor="#e58139"] ;
86 -> 87 ;
88 [label="X[3] <= 119.0\ngini = 0.48\nsamples = 4\nvalue = [2, 3]\nclass = versicolor", fillcolor="#bddef6"] ;
86 -> 88 ;
89 [label="X[10] <= 1.5\ngini = 0.44\nsamples = 3\nvalue = [2, 1]\nclass = setosa", fillcolor="#f2c09c"] ;
88 -> 89 ;
90 [label="gini = 0.0\nsamples = 2\nvalue = [2, 0]\nclass = setosa", fillcolor="#e58139"] ;
89 -> 90 ;
91 [label="gini = 0.0\nsamples = 1\nvalue = [0, 1]\nclass = versicolor", fillcolor="#399de5"] ;
89 -> 91 ;
92 [label="gini = 0.0\nsamples = 1\nvalue = [0, 2]\nclass = versicolor", fillcolor="#399de5"] ;
88 -> 92 ;
93 [label="gini = 0.0\nsamples = 5\nvalue = [11, 0]\nclass = setosa", fillcolor="#e58139"] ;
83 -> 93 ;
94 [label="X[7] <= 152.0\ngini = 0.36\nsamples = 15\nvalue = [6, 20]\nclass = versicolor", fillcolor="#74baed"] ;
82 -> 94 ;
95 [label="X[0] <= 64.5\ngini = 0.23\nsamples = 13\nvalue = [3, 20]\nclass = versicolor", fillcolor="#57ace9"] ;
94 -> 95 ;
96 [label="X[6] <= 0.5\ngini = 0.17\nsamples = 12\nvalue = [2, 20]\nclass = versicolor", fillcolor="#4da7e8"] ;
95 -> 96 ;
97 [label="X[3] <= 128.0\ngini = 0.28\nsamples = 7\nvalue = [2, 10]\nclass = versicolor", fillcolor="#61b1ea"] ;
96 -> 97 ;
98 [label="gini = 0.0\nsamples = 4\nvalue = [0, 8]\nclass = versicolor", fillcolor="#399de5"] ;
97 -> 98 ;
99 [label="X[0] <= 60.5\ngini = 0.5\nsamples = 3\nvalue = [2, 2]\nclass = setosa", fillcolor="#ffffff"] ;
97 -> 99 ;
100 [label="gini = 0.0\nsamples = 2\nvalue = [2, 0]\nclass = setosa", fillcolor="#e58139"] ;
99 -> 100 ;
101 [label="gini = 0.0\nsamples = 1\nvalue = [0, 2]\nclass = versicolor", fillcolor="#399de5"] ;
99 -> 101 ;
102 [label="gini = 0.0\nsamples = 5\nvalue = [0, 10]\nclass = versicolor", fillcolor="#399de5"] ;
96 -> 102 ;
103 [label="gini = 0.0\nsamples = 1\nvalue = [1, 0]\nclass = setosa", fillcolor="#e58139"] ;
95 -> 103 ;
104 [label="gini = 0.0\nsamples = 2\nvalue = [3, 0]\nclass = setosa", fillcolor="#e58139"] ;
94 -> 104 ;
105 [label="X[5] <= 0.5\ngini = 0.18\nsamples = 77\nvalue = [12, 108]\nclass = versicolor", fillcolor="#4fa8e8"] ;
81 -> 105 ;
106 [label="X[1] <= 0.5\ngini = 0.25\nsamples = 51\nvalue = [12, 69]\nclass = versicolor", fillcolor="#5baeea"] ;
105 -> 106 ;
107 [label="X[7] <= 105.5\ngini = 0.22\nsamples = 48\nvalue = [10, 68]\nclass = versicolor", fillcolor="#56abe9"] ;
106 -> 107 ;
108 [label="X[7] <= 102.5\ngini = 0.43\nsamples = 7\nvalue = [4, 9]\nclass = versicolor", fillcolor="#91c9f1"] ;
107 -> 108 ;
109 [label="gini = 0.0\nsamples = 6\nvalue = [0, 9]\nclass = versicolor", fillcolor="#399de5"] ;
108 -> 109 ;
110 [label="gini = 0.0\nsamples = 1\nvalue = [4, 0]\nclass = setosa", fillcolor="#e58139"] ;
108 -> 110 ;
111 [label="X[0] <= 62.5\ngini = 0.17\nsamples = 41\nvalue = [6, 59]\nclass = versicolor", fillcolor="#4da7e8"] ;
107 -> 111 ;
112 [label="X[6] <= 0.5\ngini = 0.1\nsamples = 34\nvalue = [3, 54]\nclass = versicolor", fillcolor="#44a2e6"] ;
111 -> 112 ;
113 [label="X[4] <= 289.5\ngini = 0.05\nsamples = 22\nvalue = [1, 37]\nclass = versicolor", fillcolor="#3ea0e6"] ;
112 -> 113 ;
114 [label="gini = 0.0\nsamples = 18\nvalue = [0, 31]\nclass = versicolor", fillcolor="#399de5"] ;
113 -> 114 ;
115 [label="X[0] <= 53.0\ngini = 0.24\nsamples = 4\nvalue = [1, 6]\nclass = versicolor", fillcolor="#5aade9"] ;
113 -> 115 ;
116 [label="X[7] <= 131.0\ngini = 0.44\nsamples = 3\nvalue = [1, 2]\nclass = versicolor", fillcolor="#9ccef2"] ;
115 -> 116 ;
117 [label="gini = 0.0\nsamples = 2\nvalue = [0, 2]\nclass = versicolor", fillcolor="#399de5"] ;
116 -> 117 ;
118 [label="gini = 0.0\nsamples = 1\nvalue = [1, 0]\nclass = setosa", fillcolor="#e58139"] ;
116 -> 118 ;
119 [label="gini = 0.0\nsamples = 1\nvalue = [0, 4]\nclass = versicolor", fillcolor="#399de5"] ;
115 -> 119 ;
120 [label="X[7] <= 158.5\ngini = 0.19\nsamples = 12\nvalue = [2, 17]\nclass = versicolor", fillcolor="#50a9e8"] ;
112 -> 120 ;
121 [label="X[4] <= 259.5\ngini = 0.1\nsamples = 11\nvalue = [1, 17]\nclass = versicolor", fillcolor="#45a3e7"] ;
120 -> 121 ;
122 [label="gini = 0.0\nsamples = 7\nvalue = [0, 12]\nclass = versicolor", fillcolor="#399de5"] ;
121 -> 122 ;
123 [label="X[3] <= 122.0\ngini = 0.28\nsamples = 4\nvalue = [1, 5]\nclass = versicolor", fillcolor="#61b1ea"] ;
121 -> 123 ;
124 [label="gini = 0.0\nsamples = 3\nvalue = [0, 5]\nclass = versicolor", fillcolor="#399de5"] ;
123 -> 124 ;
125 [label="gini = 0.0\nsamples = 1\nvalue = [1, 0]\nclass = setosa", fillcolor="#e58139"] ;
123 -> 125 ;
126 [label="gini = 0.0\nsamples = 1\nvalue = [1, 0]\nclass = setosa", fillcolor="#e58139"] ;
120 -> 126 ;
127 [label="X[9] <= 0.7\ngini = 0.47\nsamples = 7\nvalue = [3, 5]\nclass = versicolor", fillcolor="#b0d8f5"] ;
111 -> 127 ;
128 [label="gini = 0.0\nsamples = 2\nvalue = [2, 0]\nclass = setosa", fillcolor="#e58139"] ;
127 -> 128 ;
129 [label="X[10] <= 1.5\ngini = 0.28\nsamples = 5\nvalue = [1, 5]\nclass = versicolor", fillcolor="#61b1ea"] ;
127 -> 129 ;
130 [label="gini = 0.0\nsamples = 4\nvalue = [0, 5]\nclass = versicolor", fillcolor="#399de5"] ;
129 -> 130 ;
131 [label="gini = 0.0\nsamples = 1\nvalue = [1, 0]\nclass = setosa", fillcolor="#e58139"] ;
129 -> 131 ;
132 [label="X[3] <= 127.0\ngini = 0.44\nsamples = 3\nvalue = [2, 1]\nclass = setosa", fillcolor="#f2c09c"] ;
106 -> 132 ;
133 [label="gini = 0.0\nsamples = 1\nvalue = [0, 1]\nclass = versicolor", fillcolor="#399de5"] ;
132 -> 133 ;
134 [label="gini = 0.0\nsamples = 2\nvalue = [2, 0]\nclass = setosa", fillcolor="#e58139"] ;
132 -> 134 ;
135 [label="gini = 0.0\nsamples = 26\nvalue = [0, 39]\nclass = versicolor", fillcolor="#399de5"] ;
105 -> 135 ;
136 [label="X[0] <= 75.5\ngini = 0.14\nsamples = 136\nvalue = [18, 214]\nclass = versicolor", fillcolor="#4aa5e7"] ;
80 -> 136 ;
137 [label="X[1] <= 0.5\ngini = 0.12\nsamples = 135\nvalue = [15, 214]\nclass = versicolor", fillcolor="#47a4e7"] ;
136 -> 137 ;
138 [label="X[7] <= 130.5\ngini = 0.1\nsamples = 119\nvalue = [11, 197]\nclass = versicolor", fillcolor="#44a2e6"] ;
137 -> 138 ;
139 [label="X[7] <= 127.5\ngini = 0.03\nsamples = 85\nvalue = [2, 145]\nclass = versicolor", fillcolor="#3c9ee5"] ;
138 -> 139 ;
140 [label="X[0] <= 74.5\ngini = 0.02\nsamples = 75\nvalue = [1, 129]\nclass = versicolor", fillcolor="#3b9ee5"] ;
139 -> 140 ;
141 [label="gini = 0.0\nsamples = 72\nvalue = [0, 127]\nclass = versicolor", fillcolor="#399de5"] ;
140 -> 141 ;
142 [label="X[3] <= 148.0\ngini = 0.44\nsamples = 3\nvalue = [1, 2]\nclass = versicolor", fillcolor="#9ccef2"] ;
140 -> 142 ;
143 [label="gini = 0.0\nsamples = 1\nvalue = [0, 1]\nclass = versicolor", fillcolor="#399de5"] ;
142 -> 143 ;
144 [label="X[10] <= 1.5\ngini = 0.5\nsamples = 2\nvalue = [1, 1]\nclass = setosa", fillcolor="#ffffff"] ;
142 -> 144 ;
145 [label="gini = 0.0\nsamples = 1\nvalue = [0, 1]\nclass = versicolor", fillcolor="#399de5"] ;
144 -> 145 ;
146 [label="gini = 0.0\nsamples = 1\nvalue = [1, 0]\nclass = setosa", fillcolor="#e58139"] ;
144 -> 146 ;
147 [label="X[0] <= 45.5\ngini = 0.11\nsamples = 10\nvalue = [1, 16]\nclass = versicolor", fillcolor="#45a3e7"] ;
139 -> 147 ;
148 [label="gini = 0.0\nsamples = 1\nvalue = [1, 0]\nclass = setosa", fillcolor="#e58139"] ;
147 -> 148 ;
149 [label="gini = 0.0\nsamples = 9\nvalue = [0, 16]\nclass = versicolor", fillcolor="#399de5"] ;
147 -> 149 ;
150 [label="X[0] <= 56.0\ngini = 0.25\nsamples = 34\nvalue = [9, 52]\nclass = versicolor", fillcolor="#5baeea"] ;
138 -> 150 ;
151 [label="gini = 0.0\nsamples = 15\nvalue = [0, 24]\nclass = versicolor", fillcolor="#399de5"] ;
150 -> 151 ;
152 [label="X[4] <= 192.5\ngini = 0.37\nsamples = 19\nvalue = [9, 28]\nclass = versicolor", fillcolor="#79bced"] ;
150 -> 152 ;
153 [label="X[2] <= 2.0\ngini = 0.44\nsamples = 3\nvalue = [4, 2]\nclass = setosa", fillcolor="#f2c09c"] ;
152 -> 153 ;
154 [label="gini = 0.0\nsamples = 1\nvalue = [1, 0]\nclass = setosa", fillcolor="#e58139"] ;
153 -> 154 ;
155 [label="X[0] <= 63.5\ngini = 0.48\nsamples = 2\nvalue = [3, 2]\nclass = setosa", fillcolor="#f6d5bd"] ;
153 -> 155 ;
156 [label="gini = 0.0\nsamples = 1\nvalue = [3, 0]\nclass = setosa", fillcolor="#e58139"] ;
155 -> 156 ;
157 [label="gini = 0.0\nsamples = 1\nvalue = [0, 2]\nclass = versicolor", fillcolor="#399de5"] ;
155 -> 157 ;
158 [label="X[7] <= 138.5\ngini = 0.27\nsamples = 16\nvalue = [5, 26]\nclass = versicolor", fillcolor="#5fb0ea"] ;
152 -> 158 ;
159 [label="X[7] <= 133.0\ngini = 0.44\nsamples = 3\nvalue = [2, 1]\nclass = setosa", fillcolor="#f2c09c"] ;
158 -> 159 ;
160 [label="gini = 0.0\nsamples = 1\nvalue = [1, 0]\nclass = setosa", fillcolor="#e58139"] ;
159 -> 160 ;
161 [label="X[4] <= 218.0\ngini = 0.5\nsamples = 2\nvalue = [1, 1]\nclass = setosa", fillcolor="#ffffff"] ;
159 -> 161 ;
162 [label="gini = 0.0\nsamples = 1\nvalue = [0, 1]\nclass = versicolor", fillcolor="#399de5"] ;
161 -> 162 ;
163 [label="gini = 0.0\nsamples = 1\nvalue = [1, 0]\nclass = setosa", fillcolor="#e58139"] ;
161 -> 163 ;
164 [label="X[9] <= 4.1\ngini = 0.19\nsamples = 13\nvalue = [3, 25]\nclass = versicolor", fillcolor="#51a9e8"] ;
158 -> 164 ;
165 [label="X[7] <= 160.5\ngini = 0.14\nsamples = 12\nvalue = [2, 25]\nclass = versicolor", fillcolor="#49a5e7"] ;
164 -> 165 ;
166 [label="gini = 0.0\nsamples = 9\nvalue = [0, 22]\nclass = versicolor", fillcolor="#399de5"] ;
165 -> 166 ;
167 [label="X[3] <= 136.5\ngini = 0.48\nsamples = 3\nvalue = [2, 3]\nclass = versicolor", fillcolor="#bddef6"] ;
165 -> 167 ;
168 [label="gini = 0.0\nsamples = 1\nvalue = [2, 0]\nclass = setosa", fillcolor="#e58139"] ;
167 -> 168 ;
169 [label="gini = 0.0\nsamples = 2\nvalue = [0, 3]\nclass = versicolor", fillcolor="#399de5"] ;
167 -> 169 ;
170 [label="gini = 0.0\nsamples = 1\nvalue = [1, 0]\nclass = setosa", fillcolor="#e58139"] ;
164 -> 170 ;
171 [label="X[0] <= 53.5\ngini = 0.31\nsamples = 16\nvalue = [4, 17]\nclass = versicolor", fillcolor="#68b4eb"] ;
137 -> 171 ;
172 [label="X[4] <= 279.5\ngini = 0.49\nsamples = 7\nvalue = [4, 3]\nclass = setosa", fillcolor="#f8e0ce"] ;
171 -> 172 ;
173 [label="X[4] <= 188.0\ngini = 0.32\nsamples = 5\nvalue = [4, 1]\nclass = setosa", fillcolor="#eca06a"] ;
172 -> 173 ;
174 [label="gini = 0.0\nsamples = 1\nvalue = [0, 1]\nclass = versicolor", fillcolor="#399de5"] ;
173 -> 174 ;
175 [label="gini = 0.0\nsamples = 4\nvalue = [4, 0]\nclass = setosa", fillcolor="#e58139"] ;
173 -> 175 ;
176 [label="gini = 0.0\nsamples = 2\nvalue = [0, 2]\nclass = versicolor", fillcolor="#399de5"] ;
172 -> 176 ;
177 [label="gini = 0.0\nsamples = 9\nvalue = [0, 14]\nclass = versicolor", fillcolor="#399de5"] ;
171 -> 177 ;
178 [label="gini = 0.0\nsamples = 1\nvalue = [3, 0]\nclass = setosa", fillcolor="#e58139"] ;
136 -> 178 ;
}